|--- feature_3 <= 30.85
|   |--- value: [0.00, 0.00, 0.00, 0.00, 0.00, 0.00, 0.00, 0.00, 0.00, 0.00, 0.00, 0.00, 0.00, 0.00, 0.00, 0.00, 0.00, 0.00, 0.00, 0.00, 0.00, 0.00, 0.00, 1.00, 0.00, 0.00, 0.00, 0.00, 0.00, 0.00]
|--- feature_3 >  30.85
|   |--- feature_1 <= 27.68
|   |   |--- feature_3 <= 57.57
|   |   |   |--- feature_0 <= 29.56
|   |   |   |   |--- value: [0.00, 0.00, 0.00, 0.00, 0.00, 0.00, 0.00, 0.00, 0.00, 0.00, 0.00, 1.00, 0.00, 0.00, 0.00, 0.00, 0.00, 0.00, 0.00, 0.00, 0.00, 0.00, 0.00, 0.00, 0.00, 0.00, 0.00, 0.00, 0.00, 0.00]
|   |   |   |--- feature_0 >  29.56
|   |   |   |   |--- value: [0.00, 0.00, 0.00, 0.00, 0.00, 0.00, 0.00, 0.00, 0.00, 0.00, 0.00, 0.00, 0.00, 0.00, 0.00, 0.00, 0.00, 0.00, 0.00, 0.00, 0.00, 0.00, 1.00, 0.00, 0.00, 0.00, 0.00, 0.00, 0.00, 0.00]
|   |   |--- feature_3 >  57.57
|   |   |   |--- feature_2 <= 6.02
|   |   |   |   |--- feature_1 <= 16.78
|   |   |   |   |   |--- value: [0.00, 1.00, 0.00, 0.00, 0.00, 0.00, 0.00, 0.00, 0.00, 0.00, 0.00, 0.00, 0.00, 0.00, 0.00, 0.00, 0.00, 0.00, 0.00, 0.00, 0.00, 0.00, 0.00, 0.00, 0.00, 0.00, 0.00, 0.00, 0.00, 0.00]
|   |   |   |   |--- feature_1 >  16.78
|   |   |   |   |   |--- value: [0.00, 0.00, 0.00, 0.00, 0.00, 0.00, 0.00, 1.00, 0.00, 0.00, 0.00, 0.00, 0.00, 0.00, 0.00, 0.00, 0.00, 0.00, 0.00, 0.00, 0.00, 0.00, 0.00, 0.00, 0.00, 0.00, 0.00, 0.00, 0.00, 0.00]
|   |   |   |--- feature_2 >  6.02
|   |   |   |   |--- value: [0.00, 1.00, 0.00, 0.00, 0.00, 0.00, 0.00, 0.00, 0.00, 0.00, 0.00, 0.00, 0.00, 0.00, 0.00, 0.00, 0.00, 0.00, 0.00, 0.00, 0.00, 0.00, 0.00, 0.00, 0.00, 0.00, 0.00, 0.00, 0.00, 0.00]
|   |--- feature_1 >  27.68
|   |   |--- feature_1 <= 74.99
|   |   |   |--- feature_3 <= 74.96
|   |   |   |   |--- feature_3 <= 59.58
|   |   |   |   |   |--- feature_1 <= 60.03
|   |   |   |   |   |   |--- feature_0 <= 41.30
|   |   |   |   |   |   |   |--- value: [0.00, 0.00, 0.00, 0.00, 0.00, 0.00, 0.00, 0.00, 0.00, 1.00, 0.00, 0.00, 0.00, 0.00, 0.00, 0.00, 0.00, 0.00, 0.00, 0.00, 0.00, 0.00, 0.00, 0.00, 0.00, 0.00, 0.00, 0.00, 0.00, 0.00]
|   |   |   |   |   |   |--- feature_0 >  41.30
|   |   |   |   |   |   |   |--- value: [0.00, 0.00, 0.00, 0.00, 0.00, 0.00, 0.00, 0.00, 0.00, 0.00, 0.00, 0.00, 0.00, 0.00, 0.00, 0.00, 0.00, 0.00, 0.00, 0.00, 0.00, 0.00, 0.00, 0.00, 0.00, 0.00, 0.00, 0.00, 0.00, 0.00]
|   |   |   |   |   |--- feature_1 >  60.03
|   |   |   |   |   |   |--- feature_3 <= 34.53
|   |   |   |   |   |   |   |--- value: [0.00, 0.00, 0.00, 0.00, 0.00, 0.00, 0.00, 0.00, 0.00, 1.00, 0.00, 0.00, 0.00, 0.00, 0.00, 0.00, 0.00, 0.00, 0.00, 0.00, 0.00, 0.00, 0.00, 0.00, 0.00, 0.00, 0.00, 0.00, 0.00, 0.00]
|   |   |   |   |   |   |--- feature_3 >  34.53
|   |   |   |   |   |   |   |--- feature_2 <= 7.93
|   |   |   |   |   |   |   |   |--- feature_2 <= 5.51
|   |   |   |   |   |   |   |   |   |--- value: [0.00, 0.00, 0.00, 0.00, 0.00, 0.00, 0.00, 0.00, 0.00, 0.00, 0.00, 0.00, 0.00, 0.00, 0.00, 0.00, 0.00, 0.00, 0.00, 0.00, 0.00, 0.00, 0.00, 0.00, 0.00, 0.00, 0.00, 0.00, 0.00, 0.00]
|   |   |   |   |   |   |   |   |--- feature_2 >  5.51
|   |   |   |   |   |   |   |   |   |--- value: [0.00, 0.00, 0.00, 0.00, 0.00, 0.00, 0.00, 0.00, 1.00, 0.00, 0.00, 0.00, 0.00, 0.00, 0.00, 0.00, 0.00, 0.00, 0.00, 0.00, 0.00, 0.00, 0.00, 0.00, 0.00, 0.00, 0.00, 0.00, 0.00, 0.00]
|   |   |   |   |   |   |   |--- feature_2 >  7.93
|   |   |   |   |   |   |   |   |--- value: [0.00, 0.00, 0.00, 0.00, 0.00, 0.00, 0.00, 0.00, 0.00, 1.00, 0.00, 0.00, 0.00, 0.00, 0.00, 0.00, 0.00, 0.00, 0.00, 0.00, 0.00, 0.00, 0.00, 0.00, 0.00, 0.00, 0.00, 0.00, 0.00, 0.00]
|   |   |   |   |--- feature_3 >  59.58
|   |   |   |   |   |--- feature_2 <= 6.50
|   |   |   |   |   |   |--- feature_0 <= 26.09
|   |   |   |   |   |   |   |--- value: [0.00, 0.00, 0.00, 0.00, 0.00, 0.00, 0.00, 0.00, 0.00, 0.00, 0.00, 0.00, 0.00, 0.00, 0.00, 0.00, 0.00, 0.00, 0.00, 0.00, 1.00, 0.00, 0.00, 0.00, 0.00, 0.00, 0.00, 0.00, 0.00, 0.00]
|   |   |   |   |   |   |--- feature_0 >  26.09
|   |   |   |   |   |   |   |--- feature_1 <= 62.67
|   |   |   |   |   |   |   |   |--- feature_0 <= 41.18
|   |   |   |   |   |   |   |   |   |--- feature_2 <= 6.01
|   |   |   |   |   |   |   |   |   |   |--- value: [0.00, 0.00, 0.00, 0.00, 0.00, 0.00, 0.00, 0.00, 0.00, 1.00, 0.00, 0.00, 0.00, 0.00, 0.00, 0.00, 0.00, 0.00, 0.00, 0.00, 0.00, 0.00, 0.00, 0.00, 0.00, 0.00, 0.00, 0.00, 0.00, 0.00]
|   |   |   |   |   |   |   |   |   |--- feature_2 >  6.01
|   |   |   |   |   |   |   |   |   |   |--- feature_0 <= 31.23
|   |   |   |   |   |   |   |   |   |   |   |--- value: [0.00, 0.00, 0.00, 0.00, 0.00, 1.00, 0.00, 0.00, 0.00, 0.00, 0.00, 0.00, 0.00, 0.00, 0.00, 0.00, 0.00, 0.00, 0.00, 0.00, 0.00, 0.00, 0.00, 0.00, 0.00, 0.00, 0.00, 0.00, 0.00, 0.00]
|   |   |   |   |   |   |   |   |   |   |--- feature_0 >  31.23
|   |   |   |   |   |   |   |   |   |   |   |--- value: [0.00, 0.00, 0.00, 0.00, 0.00, 0.00, 0.00, 0.00, 0.00, 1.00, 0.00, 0.00, 0.00, 0.00, 0.00, 0.00, 0.00, 0.00, 0.00, 0.00, 0.00, 0.00, 0.00, 0.00, 0.00, 0.00, 0.00, 0.00, 0.00, 0.00]
|   |   |   |   |   |   |   |   |--- feature_0 >  41.18
|   |   |   |   |   |   |   |   |   |--- value: [0.00, 0.00, 0.00, 0.00, 0.00, 0.00, 0.00, 0.00, 0.00, 0.00, 0.00, 0.00, 0.00, 0.00, 0.00, 0.00, 0.00, 0.00, 0.00, 0.00, 0.00, 0.00, 0.00, 0.00, 0.00, 0.00, 0.00, 0.00, 0.00, 0.00]
|   |   |   |   |   |   |   |--- feature_1 >  62.67
|   |   |   |   |   |   |   |   |--- feature_2 <= 5.75
|   |   |   |   |   |   |   |   |   |--- value: [0.00, 0.00, 0.00, 0.00, 0.00, 0.00, 0.00, 0.00, 0.00, 0.00, 0.00, 0.00, 0.00, 0.00, 0.00, 0.00, 0.00, 0.00, 0.00, 0.00, 0.00, 0.00, 0.00, 0.00, 0.00, 0.00, 0.00, 0.00, 0.00, 0.00]
|   |   |   |   |   |   |   |   |--- feature_2 >  5.75
|   |   |   |   |   |   |   |   |   |--- value: [0.00, 0.00, 0.00, 0.00, 0.00, 1.00, 0.00, 0.00, 0.00, 0.00, 0.00, 0.00, 0.00, 0.00, 0.00, 0.00, 0.00, 0.00, 0.00, 0.00, 0.00, 0.00, 0.00, 0.00, 0.00, 0.00, 0.00, 0.00, 0.00, 0.00]
|   |   |   |   |   |--- feature_2 >  6.50
|   |   |   |   |   |   |--- feature_2 <= 7.83
|   |   |   |   |   |   |   |--- feature_0 <= 25.05
|   |   |   |   |   |   |   |   |--- value: [0.00, 0.00, 0.00, 0.00, 0.00, 0.00, 0.00, 0.00, 0.00, 0.00, 0.00, 0.00, 0.00, 0.00, 0.00, 0.00, 0.00, 0.00, 0.00, 0.00, 1.00, 0.00, 0.00, 0.00, 0.00, 0.00, 0.00, 0.00, 0.00, 0.00]
|   |   |   |   |   |   |   |--- feature_0 >  25.05
|   |   |   |   |   |   |   |   |--- feature_1 <= 58.96
|   |   |   |   |   |   |   |   |   |--- feature_0 <= 42.46
|   |   |   |   |   |   |   |   |   |   |--- value: [0.00, 0.00, 0.00, 0.00, 0.00, 0.00, 0.00, 0.00, 0.00, 1.00, 0.00, 0.00, 0.00, 0.00, 0.00, 0.00, 0.00, 0.00, 0.00, 0.00, 0.00, 0.00, 0.00, 0.00, 0.00, 0.00, 0.00, 0.00, 0.00, 0.00]
|   |   |   |   |   |   |   |   |   |--- feature_0 >  42.46
|   |   |   |   |   |   |   |   |   |   |--- value: [0.00, 0.00, 0.00, 0.00, 0.00, 0.00, 0.00, 0.00, 0.00, 0.00, 0.00, 0.00, 0.00, 0.00, 0.00, 0.00, 0.00, 0.00, 0.00, 0.00, 0.00, 0.00, 0.00, 0.00, 0.00, 0.00, 0.00, 0.00, 0.00, 0.00]
|   |   |   |   |   |   |   |   |--- feature_1 >  58.96
|   |   |   |   |   |   |   |   |   |--- feature_0 <= 42.52
|   |   |   |   |   |   |   |   |   |   |--- value: [1.00, 0.00, 0.00, 0.00, 0.00, 0.00, 0.00, 0.00, 0.00, 0.00, 0.00, 0.00, 0.00, 0.00, 0.00, 0.00, 0.00, 0.00, 0.00, 0.00, 0.00, 0.00, 0.00, 0.00, 0.00, 0.00, 0.00, 0.00, 0.00, 0.00]
|   |   |   |   |   |   |   |   |   |--- feature_0 >  42.52
|   |   |   |   |   |   |   |   |   |   |--- value: [0.00, 0.00, 0.00, 0.00, 0.00, 0.00, 0.00, 0.00, 0.00, 0.00, 0.00, 0.00, 0.00, 0.00, 0.00, 0.00, 0.00, 0.00, 0.00, 0.00, 0.00, 0.00, 0.00, 0.00, 0.00, 0.00, 0.00, 0.00, 0.00, 0.00]
|   |   |   |   |   |   |--- feature_2 >  7.83
|   |   |   |   |   |   |   |--- value: [0.00, 0.00, 0.00, 0.00, 0.00, 0.00, 0.00, 0.00, 0.00, 1.00, 0.00, 0.00, 0.00, 0.00, 0.00, 0.00, 0.00, 0.00, 0.00, 0.00, 0.00, 0.00, 0.00, 0.00, 0.00, 0.00, 0.00, 0.00, 0.00, 0.00]
|   |   |   |--- feature_3 >  74.96
|   |   |   |   |--- feature_2 <= 5.00
|   |   |   |   |   |--- feature_1 <= 54.67
|   |   |   |   |   |   |--- feature_3 <= 100.21
|   |   |   |   |   |   |   |--- feature_1 <= 39.78
|   |   |   |   |   |   |   |   |--- value: [0.00, 0.00, 0.00, 0.00, 0.00, 0.00, 0.00, 0.00, 0.00, 0.00, 0.00, 0.00, 1.00, 0.00, 0.00, 0.00, 0.00, 0.00, 0.00, 0.00, 0.00, 0.00, 0.00, 0.00, 0.00, 0.00, 0.00, 0.00, 0.00, 0.00]
|   |   |   |   |   |   |   |--- feature_1 >  39.78
|   |   |   |   |   |   |   |   |--- value: [0.00, 0.00, 0.00, 0.00, 0.00, 0.00, 0.00, 0.00, 0.00, 0.00, 0.00, 0.00, 0.00, 0.00, 0.00, 0.00, 0.00, 0.00, 0.00, 0.00, 0.00, 1.00, 0.00, 0.00, 0.00, 0.00, 0.00, 0.00, 0.00, 0.00]
|   |   |   |   |   |   |--- feature_3 >  100.21
|   |   |   |   |   |   |   |--- value: [0.00, 0.00, 0.00, 0.00, 0.00, 0.00, 0.00, 0.00, 0.00, 0.00, 0.00, 0.00, 1.00, 0.00, 0.00, 0.00, 0.00, 0.00, 0.00, 0.00, 0.00, 0.00, 0.00, 0.00, 0.00, 0.00, 0.00, 0.00, 0.00, 0.00]
|   |   |   |   |   |--- feature_1 >  54.67
|   |   |   |   |   |   |--- feature_1 <= 65.45
|   |   |   |   |   |   |   |--- feature_0 <= 30.15
|   |   |   |   |   |   |   |   |--- feature_3 <= 277.52
|   |   |   |   |   |   |   |   |   |--- feature_0 <= 21.49
|   |   |   |   |   |   |   |   |   |   |--- feature_3 <= 215.89
|   |   |   |   |   |   |   |   |   |   |   |--- value: [0.00, 0.00, 0.00, 0.00, 0.00, 0.00, 0.00, 0.00, 0.00, 0.00, 0.00, 0.00, 0.00, 1.00, 0.00, 0.00, 0.00, 0.00, 0.00, 0.00, 0.00, 0.00, 0.00, 0.00, 0.00, 0.00, 0.00, 0.00, 0.00, 0.00]
|   |   |   |   |   |   |   |   |   |   |--- feature_3 >  215.89
|   |   |   |   |   |   |   |   |   |   |   |--- value: [0.00, 0.00, 0.00, 0.00, 0.00, 0.00, 0.00, 0.00, 0.00, 0.00, 0.00, 0.00, 0.00, 0.00, 0.00, 1.00, 0.00, 0.00, 0.00, 0.00, 0.00, 0.00, 0.00, 0.00, 0.00, 0.00, 0.00, 0.00, 0.00, 0.00]
|   |   |   |   |   |   |   |   |   |--- feature_0 >  21.49
|   |   |   |   |   |   |   |   |   |   |--- feature_3 <= 162.25
|   |   |   |   |   |   |   |   |   |   |   |--- truncated branch of depth 2
|   |   |   |   |   |   |   |   |   |   |--- feature_3 >  162.25
|   |   |   |   |   |   |   |   |   |   |   |--- value: [0.00, 0.00, 0.00, 0.00, 0.00, 0.00, 0.00, 0.00, 0.00, 0.00, 0.00, 0.00, 0.00, 0.00, 0.00, 1.00, 0.00, 0.00, 0.00, 0.00, 0.00, 0.00, 0.00, 0.00, 0.00, 0.00, 0.00, 0.00, 0.00, 0.00]
|   |   |   |   |   |   |   |   |--- feature_3 >  277.52
|   |   |   |   |   |   |   |   |   |--- value: [0.00, 0.00, 0.00, 0.00, 0.00, 0.00, 0.00, 0.00, 0.00, 0.00, 0.00, 0.00, 0.00, 1.00, 0.00, 0.00, 0.00, 0.00, 0.00, 0.00, 0.00, 0.00, 0.00, 0.00, 0.00, 0.00, 0.00, 0.00, 0.00, 0.00]
|   |   |   |   |   |   |   |--- feature_0 >  30.15
|   |   |   |   |   |   |   |   |--- feature_2 <= 4.61
|   |   |   |   |   |   |   |   |   |--- value: [0.00, 0.00, 0.00, 0.00, 0.00, 0.00, 0.00, 0.00, 0.00, 0.00, 0.00, 0.00, 0.00, 1.00, 0.00, 0.00, 0.00, 0.00, 0.00, 0.00, 0.00, 0.00, 0.00, 0.00, 0.00, 0.00, 0.00, 0.00, 0.00, 0.00]
|   |   |   |   |   |   |   |   |--- feature_2 >  4.61
|   |   |   |   |   |   |   |   |   |--- value: [0.00, 0.00, 0.00, 0.00, 0.00, 0.00, 0.00, 0.00, 0.00, 0.00, 0.00, 0.00, 1.00, 0.00, 0.00, 0.00, 0.00, 0.00, 0.00, 0.00, 0.00, 0.00, 0.00, 0.00, 0.00, 0.00, 0.00, 0.00, 0.00, 0.00]
|   |   |   |   |   |   |--- feature_1 >  65.45
|   |   |   |   |   |   |   |--- feature_3 <= 172.72
|   |   |   |   |   |   |   |   |--- value: [0.00, 0.00, 0.00, 0.00, 0.00, 0.00, 0.00, 0.00, 0.00, 0.00, 0.00, 0.00, 1.00, 0.00, 0.00, 0.00, 0.00, 0.00, 0.00, 0.00, 0.00, 0.00, 0.00, 0.00, 0.00, 0.00, 0.00, 0.00, 0.00, 0.00]
|   |   |   |   |   |   |   |--- feature_3 >  172.72
|   |   |   |   |   |   |   |   |--- value: [0.00, 0.00, 0.00, 0.00, 0.00, 0.00, 0.00, 0.00, 0.00, 0.00, 0.00, 0.00, 0.00, 1.00, 0.00, 0.00, 0.00, 0.00, 0.00, 0.00, 0.00, 0.00, 0.00, 0.00, 0.00, 0.00, 0.00, 0.00, 0.00, 0.00]
|   |   |   |   |--- feature_2 >  5.00
|   |   |   |   |   |--- feature_3 <= 201.09
|   |   |   |   |   |   |--- feature_3 <= 85.27
|   |   |   |   |   |   |   |--- feature_0 <= 28.69
|   |   |   |   |   |   |   |   |--- feature_2 <= 6.22
|   |   |   |   |   |   |   |   |   |--- feature_1 <= 69.63
|   |   |   |   |   |   |   |   |   |   |--- feature_1 <= 55.82
|   |   |   |   |   |   |   |   |   |   |   |--- value: [0.00, 0.00, 0.00, 0.00, 0.00, 0.00, 0.00, 0.00, 0.00, 0.00, 0.00, 0.00, 0.00, 0.00, 0.00, 0.00, 0.00, 0.00, 0.00, 0.00, 0.00, 0.00, 0.00, 0.00, 0.00, 0.00, 0.00, 0.00, 0.00, 1.00]
|   |   |   |   |   |   |   |   |   |   |--- feature_1 >  55.82
|   |   |   |   |   |   |   |   |   |   |   |--- truncated branch of depth 4
|   |   |   |   |   |   |   |   |   |--- feature_1 >  69.63
|   |   |   |   |   |   |   |   |   |   |--- feature_3 <= 83.60
|   |   |   |   |   |   |   |   |   |   |   |--- value: [0.00, 0.00, 0.00, 0.00, 0.00, 0.00, 0.00, 0.00, 0.00, 0.00, 0.00, 0.00, 0.00, 0.00, 0.00, 0.00, 0.00, 0.00, 0.00, 0.00, 1.00, 0.00, 0.00, 0.00, 0.00, 0.00, 0.00, 0.00, 0.00, 0.00]
|   |   |   |   |   |   |   |   |   |   |--- feature_3 >  83.60
|   |   |   |   |   |   |   |   |   |   |   |--- value: [0.00, 0.00, 0.00, 0.00, 0.00, 0.00, 0.00, 0.00, 0.00, 0.00, 0.00, 0.00, 0.00, 0.00, 0.00, 0.00, 1.00, 0.00, 0.00, 0.00, 0.00, 0.00, 0.00, 0.00, 0.00, 0.00, 0.00, 0.00, 0.00, 0.00]
|   |   |   |   |   |   |   |   |--- feature_2 >  6.22
|   |   |   |   |   |   |   |   |   |--- feature_3 <= 82.54
|   |   |   |   |   |   |   |   |   |   |--- value: [0.00, 0.00, 0.00, 0.00, 0.00, 0.00, 0.00, 0.00, 0.00, 0.00, 0.00, 0.00, 0.00, 0.00, 0.00, 0.00, 0.00, 0.00, 0.00, 0.00, 1.00, 0.00, 0.00, 0.00, 0.00, 0.00, 0.00, 0.00, 0.00, 0.00]
|   |   |   |   |   |   |   |   |   |--- feature_3 >  82.54
|   |   |   |   |   |   |   |   |   |   |--- value: [0.00, 0.00, 0.00, 0.00, 0.00, 0.00, 0.00, 0.00, 0.00, 0.00, 0.00, 0.00, 0.00, 0.00, 0.00, 0.00, 0.00, 0.00, 0.00, 0.00, 0.00, 0.00, 0.00, 0.00, 0.00, 0.00, 0.00, 0.00, 0.00, 1.00]
|   |   |   |   |   |   |   |--- feature_0 >  28.69
|   |   |   |   |   |   |   |   |--- feature_1 <= 59.31
|   |   |   |   |   |   |   |   |   |--- feature_0 <= 40.91
|   |   |   |   |   |   |   |   |   |   |--- feature_2 <= 6.10
|   |   |   |   |   |   |   |   |   |   |   |--- value: [0.00, 0.00, 0.00, 0.00, 0.00, 1.00, 0.00, 0.00, 0.00, 0.00, 0.00, 0.00, 0.00, 0.00, 0.00, 0.00, 0.00, 0.00, 0.00, 0.00, 0.00, 0.00, 0.00, 0.00, 0.00, 0.00, 0.00, 0.00, 0.00, 0.00]
|   |   |   |   |   |   |   |   |   |   |--- feature_2 >  6.10
|   |   |   |   |   |   |   |   |   |   |   |--- value: [0.00, 0.00, 0.00, 0.00, 0.00, 0.00, 0.00, 0.00, 0.00, 0.00, 0.00, 0.00, 0.00, 0.00, 0.00, 0.00, 0.00, 0.00, 0.00, 0.00, 0.00, 0.00, 0.00, 0.00, 0.00, 0.00, 0.00, 0.00, 0.00, 1.00]
|   |   |   |   |   |   |   |   |   |--- feature_0 >  40.91
|   |   |   |   |   |   |   |   |   |   |--- value: [0.00, 0.00, 0.00, 0.00, 0.00, 0.00, 0.00, 0.00, 0.00, 0.00, 0.00, 0.00, 0.00, 0.00, 0.00, 0.00, 0.00, 0.00, 0.00, 0.00, 0.00, 0.00, 0.00, 0.00, 0.00, 0.00, 0.00, 0.00, 0.00, 0.00]
|   |   |   |   |   |   |   |   |--- feature_1 >  59.31
|   |   |   |   |   |   |   |   |   |--- feature_0 <= 43.10
|   |   |   |   |   |   |   |   |   |   |--- value: [0.00, 0.00, 0.00, 0.00, 0.00, 1.00, 0.00, 0.00, 0.00, 0.00, 0.00, 0.00, 0.00, 0.00, 0.00, 0.00, 0.00, 0.00, 0.00, 0.00, 0.00, 0.00, 0.00, 0.00, 0.00, 0.00, 0.00, 0.00, 0.00, 0.00]
|   |   |   |   |   |   |   |   |   |--- feature_0 >  43.10
|   |   |   |   |   |   |   |   |   |   |--- value: [0.00, 0.00, 0.00, 0.00, 0.00, 0.00, 0.00, 0.00, 0.00, 0.00, 0.00, 0.00, 0.00, 0.00, 0.00, 0.00, 0.00, 0.00, 0.00, 0.00, 0.00, 0.00, 0.00, 0.00, 0.00, 0.00, 0.00, 0.00, 0.00, 0.00]
|   |   |   |   |   |   |--- feature_3 >  85.27
|   |   |   |   |   |   |   |--- feature_0 <= 27.68
|   |   |   |   |   |   |   |   |--- feature_3 <= 115.01
|   |   |   |   |   |   |   |   |   |--- feature_1 <= 59.16
|   |   |   |   |   |   |   |   |   |   |--- feature_1 <= 49.78
|   |   |   |   |   |   |   |   |   |   |   |--- truncated branch of depth 2
|   |   |   |   |   |   |   |   |   |   |--- feature_1 >  49.78
|   |   |   |   |   |   |   |   |   |   |   |--- truncated branch of depth 7
|   |   |   |   |   |   |   |   |   |--- feature_1 >  59.16
|   |   |   |   |   |   |   |   |   |   |--- feature_1 <= 60.22
|   |   |   |   |   |   |   |   |   |   |   |--- truncated branch of depth 2
|   |   |   |   |   |   |   |   |   |   |--- feature_1 >  60.22
|   |   |   |   |   |   |   |   |   |   |   |--- value: [0.00, 0.00, 0.00, 0.00, 0.00, 0.00, 0.00, 0.00, 0.00, 0.00, 0.00, 0.00, 0.00, 0.00, 0.00, 0.00, 0.00, 0.00, 0.00, 0.00, 1.00, 0.00, 0.00, 0.00, 0.00, 0.00, 0.00, 0.00, 0.00, 0.00]
|   |   |   |   |   |   |   |   |--- feature_3 >  115.01
|   |   |   |   |   |   |   |   |   |--- feature_1 <= 70.30
|   |   |   |   |   |   |   |   |   |   |--- feature_0 <= 22.87
|   |   |   |   |   |   |   |   |   |   |   |--- truncated branch of depth 3
|   |   |   |   |   |   |   |   |   |   |--- feature_0 >  22.87
|   |   |   |   |   |   |   |   |   |   |   |--- truncated branch of depth 6
|   |   |   |   |   |   |   |   |   |--- feature_1 >  70.30
|   |   |   |   |   |   |   |   |   |   |--- value: [0.00, 0.00, 0.00, 0.00, 0.00, 0.00, 1.00, 0.00, 0.00, 0.00, 0.00, 0.00, 0.00, 0.00, 0.00, 0.00, 0.00, 0.00, 0.00, 0.00, 0.00, 0.00, 0.00, 0.00, 0.00, 0.00, 0.00, 0.00, 0.00, 0.00]
|   |   |   |   |   |   |   |--- feature_0 >  27.68
|   |   |   |   |   |   |   |   |--- feature_1 <= 56.73
|   |   |   |   |   |   |   |   |   |--- feature_3 <= 100.87
|   |   |   |   |   |   |   |   |   |   |--- feature_1 <= 55.11
|   |   |   |   |   |   |   |   |   |   |   |--- truncated branch of depth 8
|   |   |   |   |   |   |   |   |   |   |--- feature_1 >  55.11
|   |   |   |   |   |   |   |   |   |   |   |--- value: [0.00, 0.00, 0.00, 0.00, 0.00, 1.00, 0.00, 0.00, 0.00, 0.00, 0.00, 0.00, 0.00, 0.00, 0.00, 0.00, 0.00, 0.00, 0.00, 0.00, 0.00, 0.00, 0.00, 0.00, 0.00, 0.00, 0.00, 0.00, 0.00, 0.00]
|   |   |   |   |   |   |   |   |   |--- feature_3 >  100.87
|   |   |   |   |   |   |   |   |   |   |--- feature_0 <= 43.52
|   |   |   |   |   |   |   |   |   |   |   |--- truncated branch of depth 4
|   |   |   |   |   |   |   |   |   |   |--- feature_0 >  43.52
|   |   |   |   |   |   |   |   |   |   |   |--- value: [0.00, 0.00, 0.00, 0.00, 0.00, 0.00, 0.00, 0.00, 0.00, 0.00, 0.00, 0.00, 0.00, 0.00, 0.00, 0.00, 0.00, 0.00, 0.00, 0.00, 0.00, 0.00, 0.00, 0.00, 0.00, 0.00, 0.00, 0.00, 0.00, 0.00]
|   |   |   |   |   |   |   |   |--- feature_1 >  56.73
|   |   |   |   |   |   |   |   |   |--- feature_2 <= 6.51
|   |   |   |   |   |   |   |   |   |   |--- feature_0 <= 34.70
|   |   |   |   |   |   |   |   |   |   |   |--- truncated branch of depth 6
|   |   |   |   |   |   |   |   |   |   |--- feature_0 >  34.70
|   |   |   |   |   |   |   |   |   |   |   |--- truncated branch of depth 2
|   |   |   |   |   |   |   |   |   |--- feature_2 >  6.51
|   |   |   |   |   |   |   |   |   |   |--- feature_0 <= 42.76
|   |   |   |   |   |   |   |   |   |   |   |--- value: [0.00, 0.00, 0.00, 0.00, 0.00, 0.00, 0.00, 0.00, 0.00, 0.00, 0.00, 0.00, 0.00, 0.00, 0.00, 0.00, 0.00, 0.00, 0.00, 0.00, 0.00, 0.00, 0.00, 0.00, 0.00, 0.00, 0.00, 0.00, 0.00, 1.00]
|   |   |   |   |   |   |   |   |   |   |--- feature_0 >  42.76
|   |   |   |   |   |   |   |   |   |   |   |--- value: [0.00, 0.00, 0.00, 0.00, 0.00, 0.00, 0.00, 0.00, 0.00, 0.00, 0.00, 0.00, 0.00, 0.00, 0.00, 0.00, 0.00, 0.00, 0.00, 0.00, 0.00, 0.00, 0.00, 0.00, 0.00, 0.00, 0.00, 0.00, 0.00, 0.00]
|   |   |   |   |   |--- feature_3 >  201.09
|   |   |   |   |   |   |--- value: [0.00, 0.00, 0.00, 0.00, 0.00, 0.00, 0.00, 0.00, 0.00, 0.00, 0.00, 0.00, 0.00, 1.00, 0.00, 0.00, 0.00, 0.00, 0.00, 0.00, 0.00, 0.00, 0.00, 0.00, 0.00, 0.00, 0.00, 0.00, 0.00, 0.00]
|   |   |--- feature_1 >  74.99
|   |   |   |--- feature_3 <= 60.26
|   |   |   |   |--- feature_0 <= 27.03
|   |   |   |   |   |--- feature_1 <= 91.36
|   |   |   |   |   |   |--- value: [0.00, 0.00, 0.00, 0.00, 0.00, 0.00, 0.00, 0.00, 0.00, 0.00, 0.00, 0.00, 0.00, 0.00, 0.00, 0.00, 0.00, 0.00, 0.00, 0.00, 0.00, 0.00, 0.00, 0.00, 0.00, 0.00, 0.00, 0.00, 1.00, 0.00]
|   |   |   |   |   |--- feature_1 >  91.36
|   |   |   |   |   |   |--- value: [0.00, 0.00, 0.00, 0.00, 0.00, 0.00, 0.00, 0.00, 0.00, 0.00, 0.00, 0.00, 0.00, 0.00, 0.00, 0.00, 0.00, 0.00, 0.00, 0.00, 0.00, 0.00, 0.00, 0.00, 0.00, 1.00, 0.00, 0.00, 0.00, 0.00]
|   |   |   |   |--- feature_0 >  27.03
|   |   |   |   |   |--- feature_1 <= 90.11
|   |   |   |   |   |   |--- value: [0.00, 0.00, 0.00, 0.00, 0.00, 0.00, 0.00, 0.00, 0.00, 0.00, 1.00, 0.00, 0.00, 0.00, 0.00, 0.00, 0.00, 0.00, 0.00, 0.00, 0.00, 0.00, 0.00, 0.00, 0.00, 0.00, 0.00, 0.00, 0.00, 0.00]
|   |   |   |   |   |--- feature_1 >  90.11
|   |   |   |   |   |   |--- value: [0.00, 0.00, 0.00, 0.00, 0.00, 0.00, 0.00, 0.00, 0.00, 0.00, 0.00, 0.00, 0.00, 0.00, 0.00, 0.00, 0.00, 0.00, 0.00, 0.00, 0.00, 0.00, 0.00, 0.00, 0.00, 1.00, 0.00, 0.00, 0.00, 0.00]
|   |   |   |--- feature_3 >  60.26
|   |   |   |   |--- feature_1 <= 85.11
|   |   |   |   |   |--- feature_3 <= 90.16
|   |   |   |   |   |   |--- feature_2 <= 6.51
|   |   |   |   |   |   |   |--- feature_1 <= 79.31
|   |   |   |   |   |   |   |   |--- value: [0.00, 0.00, 0.00, 0.00, 1.00, 0.00, 0.00, 0.00, 0.00, 0.00, 0.00, 0.00, 0.00, 0.00, 0.00, 0.00, 0.00, 0.00, 0.00, 0.00, 0.00, 0.00, 0.00, 0.00, 0.00, 0.00, 0.00, 0.00, 0.00, 0.00]
|   |   |   |   |   |   |   |--- feature_1 >  79.31
|   |   |   |   |   |   |   |   |--- feature_3 <= 77.36
|   |   |   |   |   |   |   |   |   |--- feature_2 <= 6.36
|   |   |   |   |   |   |   |   |   |   |--- value: [0.00, 0.00, 0.00, 0.00, 0.00, 0.00, 0.00, 0.00, 0.00, 0.00, 0.00, 0.00, 0.00, 0.00, 0.00, 0.00, 0.00, 0.00, 0.00, 1.00, 0.00, 0.00, 0.00, 0.00, 0.00, 0.00, 0.00, 0.00, 0.00, 0.00]
|   |   |   |   |   |   |   |   |   |--- feature_2 >  6.36
|   |   |   |   |   |   |   |   |   |   |--- feature_2 <= 6.37
|   |   |   |   |   |   |   |   |   |   |   |--- truncated branch of depth 2
|   |   |   |   |   |   |   |   |   |   |--- feature_2 >  6.37
|   |   |   |   |   |   |   |   |   |   |   |--- value: [0.00, 0.00, 0.00, 0.00, 0.00, 0.00, 0.00, 0.00, 0.00, 0.00, 0.00, 0.00, 0.00, 0.00, 0.00, 0.00, 0.00, 0.00, 0.00, 1.00, 0.00, 0.00, 0.00, 0.00, 0.00, 0.00, 0.00, 0.00, 0.00, 0.00]
|   |   |   |   |   |   |   |   |--- feature_3 >  77.36
|   |   |   |   |   |   |   |   |   |--- value: [0.00, 0.00, 0.00, 0.00, 1.00, 0.00, 0.00, 0.00, 0.00, 0.00, 0.00, 0.00, 0.00, 0.00, 0.00, 0.00, 0.00, 0.00, 0.00, 0.00, 0.00, 0.00, 0.00, 0.00, 0.00, 0.00, 0.00, 0.00, 0.00, 0.00]
|   |   |   |   |   |   |--- feature_2 >  6.51
|   |   |   |   |   |   |   |--- value: [0.00, 0.00, 0.00, 0.00, 1.00, 0.00, 0.00, 0.00, 0.00, 0.00, 0.00, 0.00, 0.00, 0.00, 0.00, 0.00, 0.00, 0.00, 0.00, 0.00, 0.00, 0.00, 0.00, 0.00, 0.00, 0.00, 0.00, 0.00, 0.00, 0.00]
|   |   |   |   |   |--- feature_3 >  90.16
|   |   |   |   |   |   |--- feature_3 <= 182.59
|   |   |   |   |   |   |   |--- feature_3 <= 120.90
|   |   |   |   |   |   |   |   |--- feature_2 <= 6.51
|   |   |   |   |   |   |   |   |   |--- feature_0 <= 24.75
|   |   |   |   |   |   |   |   |   |   |--- value: [0.00, 0.00, 0.00, 0.00, 1.00, 0.00, 0.00, 0.00, 0.00, 0.00, 0.00, 0.00, 0.00, 0.00, 0.00, 0.00, 0.00, 0.00, 0.00, 0.00, 0.00, 0.00, 0.00, 0.00, 0.00, 0.00, 0.00, 0.00, 0.00, 0.00]
|   |   |   |   |   |   |   |   |   |--- feature_0 >  24.75
|   |   |   |   |   |   |   |   |   |   |--- feature_0 <= 29.93
|   |   |   |   |   |   |   |   |   |   |   |--- truncated branch of depth 8
|   |   |   |   |   |   |   |   |   |   |--- feature_0 >  29.93
|   |   |   |   |   |   |   |   |   |   |   |--- value: [0.00, 0.00, 0.00, 0.00, 0.00, 0.00, 0.00, 0.00, 0.00, 0.00, 0.00, 0.00, 0.00, 0.00, 1.00, 0.00, 0.00, 0.00, 0.00, 0.00, 0.00, 0.00, 0.00, 0.00, 0.00, 0.00, 0.00, 0.00, 0.00, 0.00]
|   |   |   |   |   |   |   |   |--- feature_2 >  6.51
|   |   |   |   |   |   |   |   |   |--- feature_3 <= 99.98
|   |   |   |   |   |   |   |   |   |   |--- value: [0.00, 0.00, 0.00, 0.00, 1.00, 0.00, 0.00, 0.00, 0.00, 0.00, 0.00, 0.00, 0.00, 0.00, 0.00, 0.00, 0.00, 0.00, 0.00, 0.00, 0.00, 0.00, 0.00, 0.00, 0.00, 0.00, 0.00, 0.00, 0.00, 0.00]
|   |   |   |   |   |   |   |   |   |--- feature_3 >  99.98
|   |   |   |   |   |   |   |   |   |   |--- value: [0.00, 0.00, 0.00, 0.00, 0.00, 0.00, 0.00, 0.00, 0.00, 0.00, 0.00, 0.00, 0.00, 0.00, 1.00, 0.00, 0.00, 0.00, 0.00, 0.00, 0.00, 0.00, 0.00, 0.00, 0.00, 0.00, 0.00, 0.00, 0.00, 0.00]
|   |   |   |   |   |   |   |--- feature_3 >  120.90
|   |   |   |   |   |   |   |   |--- feature_0 <= 25.54
|   |   |   |   |   |   |   |   |   |--- feature_2 <= 5.81
|   |   |   |   |   |   |   |   |   |   |--- value: [0.00, 0.00, 0.00, 0.00, 0.00, 0.00, 0.00, 0.00, 0.00, 0.00, 0.00, 0.00, 0.00, 0.00, 1.00, 0.00, 0.00, 0.00, 0.00, 0.00, 0.00, 0.00, 0.00, 0.00, 0.00, 0.00, 0.00, 0.00, 0.00, 0.00]
|   |   |   |   |   |   |   |   |   |--- feature_2 >  5.81
|   |   |   |   |   |   |   |   |   |   |--- value: [0.00, 0.00, 0.00, 0.00, 0.00, 0.00, 1.00, 0.00, 0.00, 0.00, 0.00, 0.00, 0.00, 0.00, 0.00, 0.00, 0.00, 0.00, 0.00, 0.00, 0.00, 0.00, 0.00, 0.00, 0.00, 0.00, 0.00, 0.00, 0.00, 0.00]
|   |   |   |   |   |   |   |   |--- feature_0 >  25.54
|   |   |   |   |   |   |   |   |   |--- feature_3 <= 175.53
|   |   |   |   |   |   |   |   |   |   |--- feature_0 <= 27.03
|   |   |   |   |   |   |   |   |   |   |   |--- truncated branch of depth 4
|   |   |   |   |   |   |   |   |   |   |--- feature_0 >  27.03
|   |   |   |   |   |   |   |   |   |   |   |--- value: [0.00, 0.00, 0.00, 0.00, 0.00, 0.00, 0.00, 0.00, 0.00, 0.00, 0.00, 0.00, 0.00, 0.00, 1.00, 0.00, 0.00, 0.00, 0.00, 0.00, 0.00, 0.00, 0.00, 0.00, 0.00, 0.00, 0.00, 0.00, 0.00, 0.00]
|   |   |   |   |   |   |   |   |   |--- feature_3 >  175.53
|   |   |   |   |   |   |   |   |   |   |--- value: [0.00, 0.00, 0.00, 0.00, 0.00, 0.00, 1.00, 0.00, 0.00, 0.00, 0.00, 0.00, 0.00, 0.00, 0.00, 0.00, 0.00, 0.00, 0.00, 0.00, 0.00, 0.00, 0.00, 0.00, 0.00, 0.00, 0.00, 0.00, 0.00, 0.00]
|   |   |   |   |   |   |--- feature_3 >  182.59
|   |   |   |   |   |   |   |--- feature_1 <= 79.97
|   |   |   |   |   |   |   |   |--- feature_2 <= 6.03
|   |   |   |   |   |   |   |   |   |--- value: [0.00, 0.00, 0.00, 0.00, 0.00, 0.00, 0.00, 0.00, 0.00, 0.00, 0.00, 0.00, 0.00, 1.00, 0.00, 0.00, 0.00, 0.00, 0.00, 0.00, 0.00, 0.00, 0.00, 0.00, 0.00, 0.00, 0.00, 0.00, 0.00, 0.00]
|   |   |   |   |   |   |   |   |--- feature_2 >  6.03
|   |   |   |   |   |   |   |   |   |--- value: [0.00, 0.00, 0.00, 0.00, 0.00, 0.00, 1.00, 0.00, 0.00, 0.00, 0.00, 0.00, 0.00, 0.00, 0.00, 0.00, 0.00, 0.00, 0.00, 0.00, 0.00, 0.00, 0.00, 0.00, 0.00, 0.00, 0.00, 0.00, 0.00, 0.00]
|   |   |   |   |   |   |   |--- feature_1 >  79.97
|   |   |   |   |   |   |   |   |--- feature_3 <= 196.81
|   |   |   |   |   |   |   |   |   |--- feature_2 <= 6.07
|   |   |   |   |   |   |   |   |   |   |--- value: [0.00, 0.00, 0.00, 0.00, 0.00, 0.00, 0.00, 0.00, 0.00, 0.00, 0.00, 0.00, 0.00, 0.00, 0.00, 0.00, 0.00, 0.00, 0.00, 0.00, 0.00, 0.00, 0.00, 0.00, 0.00, 0.00, 0.00, 1.00, 0.00, 0.00]
|   |   |   |   |   |   |   |   |   |--- feature_2 >  6.07
|   |   |   |   |   |   |   |   |   |   |--- feature_3 <= 185.51
|   |   |   |   |   |   |   |   |   |   |   |--- value: [0.00, 0.00, 0.00, 0.00, 0.00, 0.00, 0.00, 0.00, 0.00, 0.00, 0.00, 0.00, 0.00, 0.00, 0.00, 0.00, 0.00, 0.00, 0.00, 0.00, 0.00, 0.00, 0.00, 0.00, 0.00, 0.00, 0.00, 1.00, 0.00, 0.00]
|   |   |   |   |   |   |   |   |   |   |--- feature_3 >  185.51
|   |   |   |   |   |   |   |   |   |   |   |--- truncated branch of depth 2
|   |   |   |   |   |   |   |   |--- feature_3 >  196.81
|   |   |   |   |   |   |   |   |   |--- value: [0.00, 0.00, 0.00, 0.00, 0.00, 0.00, 0.00, 0.00, 0.00, 0.00, 0.00, 0.00, 0.00, 0.00, 0.00, 0.00, 0.00, 0.00, 0.00, 0.00, 0.00, 0.00, 0.00, 0.00, 0.00, 0.00, 0.00, 1.00, 0.00, 0.00]
|   |   |   |   |--- feature_1 >  85.11
|   |   |   |   |   |--- feature_3 <= 125.90
|   |   |   |   |   |   |--- feature_1 <= 89.98
|   |   |   |   |   |   |   |--- value: [0.00, 0.00, 0.00, 0.00, 0.00, 0.00, 0.00, 0.00, 0.00, 0.00, 0.00, 0.00, 0.00, 0.00, 0.00, 0.00, 0.00, 0.00, 0.00, 0.00, 0.00, 0.00, 0.00, 0.00, 0.00, 0.00, 1.00, 0.00, 0.00, 0.00]
|   |   |   |   |   |   |--- feature_1 >  89.98
|   |   |   |   |   |   |   |--- feature_2 <= 6.28
|   |   |   |   |   |   |   |   |--- feature_0 <= 21.07
|   |   |   |   |   |   |   |   |   |--- feature_0 <= 16.43
|   |   |   |   |   |   |   |   |   |   |--- value: [0.00, 0.00, 0.00, 0.00, 0.00, 0.00, 0.00, 0.00, 0.00, 0.00, 0.00, 0.00, 0.00, 0.00, 0.00, 0.00, 0.00, 0.00, 0.00, 0.00, 0.00, 0.00, 0.00, 0.00, 1.00, 0.00, 0.00, 0.00, 0.00, 0.00]
|   |   |   |   |   |   |   |   |   |--- feature_0 >  16.43
|   |   |   |   |   |   |   |   |   |   |--- feature_2 <= 6.13
|   |   |   |   |   |   |   |   |   |   |   |--- value: [0.00, 0.00, 0.00, 0.00, 0.00, 0.00, 0.00, 0.00, 0.00, 0.00, 0.00, 0.00, 0.00, 0.00, 0.00, 0.00, 0.00, 0.00, 0.00, 0.00, 0.00, 0.00, 0.00, 0.00, 0.00, 0.00, 1.00, 0.00, 0.00, 0.00]
|   |   |   |   |   |   |   |   |   |   |--- feature_2 >  6.13
|   |   |   |   |   |   |   |   |   |   |   |--- truncated branch of depth 2
|   |   |   |   |   |   |   |   |--- feature_0 >  21.07
|   |   |   |   |   |   |   |   |   |--- feature_0 <= 24.17
|   |   |   |   |   |   |   |   |   |   |--- feature_1 <= 92.89
|   |   |   |   |   |   |   |   |   |   |   |--- value: [0.00, 0.00, 0.00, 0.00, 0.00, 0.00, 0.00, 0.00, 0.00, 0.00, 0.00, 0.00, 0.00, 0.00, 0.00, 0.00, 0.00, 1.00, 0.00, 0.00, 0.00, 0.00, 0.00, 0.00, 0.00, 0.00, 0.00, 0.00, 0.00, 0.00]
|   |   |   |   |   |   |   |   |   |   |--- feature_1 >  92.89
|   |   |   |   |   |   |   |   |   |   |   |--- truncated branch of depth 4
|   |   |   |   |   |   |   |   |   |--- feature_0 >  24.17
|   |   |   |   |   |   |   |   |   |   |--- feature_0 <= 26.44
|   |   |   |   |   |   |   |   |   |   |   |--- value: [0.00, 0.00, 0.00, 0.00, 0.00, 0.00, 0.00, 0.00, 0.00, 0.00, 0.00, 0.00, 0.00, 0.00, 0.00, 0.00, 0.00, 0.00, 0.00, 0.00, 0.00, 0.00, 0.00, 0.00, 0.00, 0.00, 1.00, 0.00, 0.00, 0.00]
|   |   |   |   |   |   |   |   |   |   |--- feature_0 >  26.44
|   |   |   |   |   |   |   |   |   |   |   |--- value: [0.00, 0.00, 0.00, 0.00, 0.00, 0.00, 0.00, 0.00, 0.00, 0.00, 0.00, 0.00, 0.00, 0.00, 0.00, 0.00, 0.00, 0.00, 0.00, 0.00, 0.00, 0.00, 0.00, 0.00, 1.00, 0.00, 0.00, 0.00, 0.00, 0.00]
|   |   |   |   |   |   |   |--- feature_2 >  6.28
|   |   |   |   |   |   |   |   |--- feature_3 <= 98.72
|   |   |   |   |   |   |   |   |   |--- value: [0.00, 0.00, 0.00, 0.00, 0.00, 0.00, 0.00, 0.00, 0.00, 0.00, 0.00, 0.00, 0.00, 0.00, 0.00, 0.00, 0.00, 0.00, 0.00, 0.00, 0.00, 0.00, 0.00, 0.00, 0.00, 1.00, 0.00, 0.00, 0.00, 0.00]
|   |   |   |   |   |   |   |   |--- feature_3 >  98.72
|   |   |   |   |   |   |   |   |   |--- feature_2 <= 7.18
|   |   |   |   |   |   |   |   |   |   |--- feature_0 <= 18.07
|   |   |   |   |   |   |   |   |   |   |   |--- value: [0.00, 0.00, 0.00, 0.00, 0.00, 0.00, 0.00, 0.00, 0.00, 0.00, 0.00, 0.00, 0.00, 0.00, 0.00, 0.00, 0.00, 0.00, 0.00, 0.00, 0.00, 0.00, 0.00, 0.00, 1.00, 0.00, 0.00, 0.00, 0.00, 0.00]
|   |   |   |   |   |   |   |   |   |   |--- feature_0 >  18.07
|   |   |   |   |   |   |   |   |   |   |   |--- truncated branch of depth 7
|   |   |   |   |   |   |   |   |   |--- feature_2 >  7.18
|   |   |   |   |   |   |   |   |   |   |--- value: [0.00, 0.00, 0.00, 0.00, 0.00, 0.00, 0.00, 0.00, 0.00, 0.00, 0.00, 0.00, 0.00, 0.00, 0.00, 0.00, 0.00, 0.00, 0.00, 0.00, 0.00, 0.00, 0.00, 0.00, 1.00, 0.00, 0.00, 0.00, 0.00, 0.00]
|   |   |   |   |   |--- feature_3 >  125.90
|   |   |   |   |   |   |--- feature_2 <= 6.48
|   |   |   |   |   |   |   |--- feature_1 <= 89.41
|   |   |   |   |   |   |   |   |--- value: [0.00, 0.00, 0.00, 0.00, 0.00, 0.00, 1.00, 0.00, 0.00, 0.00, 0.00, 0.00, 0.00, 0.00, 0.00, 0.00, 0.00, 0.00, 0.00, 0.00, 0.00, 0.00, 0.00, 0.00, 0.00, 0.00, 0.00, 0.00, 0.00, 0.00]
|   |   |   |   |   |   |   |--- feature_1 >  89.41
|   |   |   |   |   |   |   |   |--- value: [0.00, 0.00, 1.00, 0.00, 0.00, 0.00, 0.00, 0.00, 0.00, 0.00, 0.00, 0.00, 0.00, 0.00, 0.00, 0.00, 0.00, 0.00, 0.00, 0.00, 0.00, 0.00, 0.00, 0.00, 0.00, 0.00, 0.00, 0.00, 0.00, 0.00]
|   |   |   |   |   |   |--- feature_2 >  6.48
|   |   |   |   |   |   |   |--- feature_1 <= 89.96
|   |   |   |   |   |   |   |   |--- value: [0.00, 0.00, 0.00, 0.00, 0.00, 0.00, 1.00, 0.00, 0.00, 0.00, 0.00, 0.00, 0.00, 0.00, 0.00, 0.00, 0.00, 0.00, 0.00, 0.00, 0.00, 0.00, 0.00, 0.00, 0.00, 0.00, 0.00, 0.00, 0.00, 0.00]
|   |   |   |   |   |   |   |--- feature_1 >  89.96
|   |   |   |   |   |   |   |   |--- value: [0.00, 0.00, 0.00, 0.00, 0.00, 0.00, 0.00, 0.00, 0.00, 0.00, 0.00, 0.00, 0.00, 0.00, 0.00, 0.00, 0.00, 0.00, 0.00, 0.00, 0.00, 0.00, 0.00, 0.00, 0.00, 1.00, 0.00, 0.00, 0.00, 0.00]
x